digraph Tree {
node [shape=box, style="filled, rounded", color="black", fontname=helvetica] ;
edge [fontname=helvetica] ;
0 [label=<G2 &le; 11.5<br/>gini = 0.499<br/>samples = 100.0%<br/>value = [0.475, 0.525]<br/>class = Yes>, fillcolor="#399de519"] ;
1 [label=<G2 &le; 10.5<br/>gini = 0.169<br/>samples = 51.8%<br/>value = [0.907, 0.093]<br/>class = No>, fillcolor="#e58139e5"] ;
0 -> 1 [labeldistance=2.5, labelangle=45, headlabel="True"] ;
2 [label=<G1 &le; 12.5<br/>gini = 0.026<br/>samples = 35.3%<br/>value = [0.987, 0.013]<br/>class = No>, fillcolor="#e58139fc"] ;
1 -> 2 ;
3 [label=<Dalc &le; 4.5<br/>gini = 0.013<br/>samples = 35.0%<br/>value = [0.993, 0.007]<br/>class = No>, fillcolor="#e58139fd"] ;
2 -> 3 ;
4 [label=<gini = 0.0<br/>samples = 32.9%<br/>value = [1.0, 0.0]<br/>class = No>, fillcolor="#e58139ff"] ;
3 -> 4 ;
5 [label=<absences &le; 1.0<br/>gini = 0.198<br/>samples = 2.1%<br/>value = [0.889, 0.111]<br/>class = No>, fillcolor="#e58139df"] ;
3 -> 5 ;
6 [label=<gini = 0.0<br/>samples = 0.2%<br/>value = [0.0, 1.0]<br/>class = Yes>, fillcolor="#399de5ff"] ;
5 -> 6 ;
7 [label=<gini = 0.0<br/>samples = 1.8%<br/>value = [1.0, 0.0]<br/>class = No>, fillcolor="#e58139ff"] ;
5 -> 7 ;
8 [label=<gini = 0.0<br/>samples = 0.2%<br/>value = [0.0, 1.0]<br/>class = Yes>, fillcolor="#399de5ff"] ;
2 -> 8 ;
9 [label=<absences &le; 9.0<br/>gini = 0.389<br/>samples = 16.6%<br/>value = [0.736, 0.264]<br/>class = No>, fillcolor="#e58139a4"] ;
1 -> 9 ;
10 [label=<Mjob &le; 1.5<br/>gini = 0.429<br/>samples = 14.1%<br/>value = [0.689, 0.311]<br/>class = No>, fillcolor="#e581398c"] ;
9 -> 10 ;
11 [label=<freetime &le; 1.5<br/>gini = 0.188<br/>samples = 4.4%<br/>value = [0.895, 0.105]<br/>class = No>, fillcolor="#e58139e1"] ;
10 -> 11 ;
12 [label=<gini = 0.5<br/>samples = 0.5%<br/>value = [0.5, 0.5]<br/>class = No>, fillcolor="#e5813900"] ;
11 -> 12 ;
13 [label=<gini = 0.111<br/>samples = 3.9%<br/>value = [0.941, 0.059]<br/>class = No>, fillcolor="#e58139ef"] ;
11 -> 13 ;
14 [label=<Walc &le; 1.5<br/>gini = 0.482<br/>samples = 9.7%<br/>value = [0.595, 0.405]<br/>class = No>, fillcolor="#e5813952"] ;
10 -> 14 ;
15 [label=<gini = 0.32<br/>samples = 3.5%<br/>value = [0.8, 0.2]<br/>class = No>, fillcolor="#e58139bf"] ;
14 -> 15 ;
16 [label=<gini = 0.499<br/>samples = 6.2%<br/>value = [0.481, 0.519]<br/>class = Yes>, fillcolor="#399de512"] ;
14 -> 16 ;
17 [label=<gini = 0.0<br/>samples = 2.5%<br/>value = [1.0, 0.0]<br/>class = No>, fillcolor="#e58139ff"] ;
9 -> 17 ;
18 [label=<Medu &le; 0.5<br/>gini = 0.019<br/>samples = 48.2%<br/>value = [0.01, 0.99]<br/>class = Yes>, fillcolor="#399de5fd"] ;
0 -> 18 [labeldistance=2.5, labelangle=-45, headlabel="False"] ;
19 [label=<gini = 0.0<br/>samples = 0.2%<br/>value = [1.0, 0.0]<br/>class = No>, fillcolor="#e58139ff"] ;
18 -> 19 ;
20 [label=<Walc &le; 4.5<br/>gini = 0.01<br/>samples = 47.9%<br/>value = [0.005, 0.995]<br/>class = Yes>, fillcolor="#399de5fe"] ;
18 -> 20 ;
21 [label=<gini = 0.0<br/>samples = 45.9%<br/>value = [0.0, 1.0]<br/>class = Yes>, fillcolor="#399de5ff"] ;
20 -> 21 ;
22 [label=<G1 &le; 12.0<br/>gini = 0.198<br/>samples = 2.1%<br/>value = [0.111, 0.889]<br/>class = Yes>, fillcolor="#399de5df"] ;
20 -> 22 ;
23 [label=<gini = 0.0<br/>samples = 0.2%<br/>value = [1.0, 0.0]<br/>class = No>, fillcolor="#e58139ff"] ;
22 -> 23 ;
24 [label=<gini = 0.0<br/>samples = 1.8%<br/>value = [0.0, 1.0]<br/>class = Yes>, fillcolor="#399de5ff"] ;
22 -> 24 ;
}